digraph Tree {
node [shape=box] ;
0 [label="sex <= 0.5\ngini = 0.4787\nsamples = 834\nvalue = [503, 331]"] ;
1 [label="pclass <= 2.5\ngini = 0.3774\nsamples = 305\nvalue = [77, 228]"] ;
0 -> 1 [labeldistance=2.5, labelangle=45, headlabel="True"] ;
2 [label="fare <= 32.0896\ngini = 0.1378\nsamples = 188\nvalue = [14, 174]"] ;
1 -> 2 ;
3 [label="age <= 56.0\ngini = 0.2401\nsamples = 86\nvalue = [12, 74]"] ;
2 -> 3 ;
4 [label="fare <= 31.3396\ngini = 0.2119\nsamples = 83\nvalue = [10, 73]"] ;
3 -> 4 ;
5 [label="age <= 21.5\ngini = 0.1954\nsamples = 82\nvalue = [9, 73]"] ;
4 -> 5 ;
6 [label="gini = 0.0\nsamples = 21\nvalue = [0, 21]"] ;
5 -> 6 ;
7 [label="age <= 27.5\ngini = 0.2515\nsamples = 61\nvalue = [9, 52]"] ;
5 -> 7 ;
8 [label="age <= 25.5\ngini = 0.4082\nsamples = 14\nvalue = [4, 10]"] ;
7 -> 8 ;
9 [label="parch <= 0.5\ngini = 0.2975\nsamples = 11\nvalue = [2, 9]"] ;
8 -> 9 ;
10 [label="embarked <= 1.0\ngini = 0.4444\nsamples = 6\nvalue = [2, 4]"] ;
9 -> 10 ;
11 [label="gini = 0.0\nsamples = 2\nvalue = [0, 2]"] ;
10 -> 11 ;
12 [label="gini = 0.5\nsamples = 4\nvalue = [2, 2]"] ;
10 -> 12 ;
13 [label="gini = 0.0\nsamples = 5\nvalue = [0, 5]"] ;
9 -> 13 ;
14 [label="embarked <= 1.0\ngini = 0.4444\nsamples = 3\nvalue = [2, 1]"] ;
8 -> 14 ;
15 [label="gini = 0.0\nsamples = 1\nvalue = [0, 1]"] ;
14 -> 15 ;
16 [label="gini = 0.0\nsamples = 2\nvalue = [2, 0]"] ;
14 -> 16 ;
17 [label="fare <= 28.2313\ngini = 0.1901\nsamples = 47\nvalue = [5, 42]"] ;
7 -> 17 ;
18 [label="age <= 44.5\ngini = 0.1653\nsamples = 44\nvalue = [4, 40]"] ;
17 -> 18 ;
19 [label="age <= 43.0\ngini = 0.2024\nsamples = 35\nvalue = [4, 31]"] ;
18 -> 19 ;
20 [label="gini = 0.1653\nsamples = 33\nvalue = [3, 30]"] ;
19 -> 20 ;
21 [label="gini = 0.5\nsamples = 2\nvalue = [1, 1]"] ;
19 -> 21 ;
22 [label="gini = 0.0\nsamples = 9\nvalue = [0, 9]"] ;
18 -> 22 ;
23 [label="fare <= 29.3563\ngini = 0.4444\nsamples = 3\nvalue = [1, 2]"] ;
17 -> 23 ;
24 [label="gini = 0.0\nsamples = 1\nvalue = [1, 0]"] ;
23 -> 24 ;
25 [label="gini = 0.0\nsamples = 2\nvalue = [0, 2]"] ;
23 -> 25 ;
26 [label="gini = 0.0\nsamples = 1\nvalue = [1, 0]"] ;
4 -> 26 ;
27 [label="pclass <= 1.5\ngini = 0.4444\nsamples = 3\nvalue = [2, 1]"] ;
3 -> 27 ;
28 [label="gini = 0.0\nsamples = 1\nvalue = [0, 1]"] ;
27 -> 28 ;
29 [label="gini = 0.0\nsamples = 2\nvalue = [2, 0]"] ;
27 -> 29 ;
30 [label="age <= 61.5\ngini = 0.0384\nsamples = 102\nvalue = [2, 100]"] ;
2 -> 30 ;
31 [label="parch <= 1.5\ngini = 0.02\nsamples = 99\nvalue = [1, 98]"] ;
30 -> 31 ;
32 [label="gini = 0.0\nsamples = 80\nvalue = [0, 80]"] ;
31 -> 32 ;
33 [label="fare <= 135.775\ngini = 0.0997\nsamples = 19\nvalue = [1, 18]"] ;
31 -> 33 ;
34 [label="gini = 0.0\nsamples = 11\nvalue = [0, 11]"] ;
33 -> 34 ;
35 [label="fare <= 158.2083\ngini = 0.2188\nsamples = 8\nvalue = [1, 7]"] ;
33 -> 35 ;
36 [label="gini = 0.0\nsamples = 1\nvalue = [1, 0]"] ;
35 -> 36 ;
37 [label="gini = 0.0\nsamples = 7\nvalue = [0, 7]"] ;
35 -> 37 ;
38 [label="fare <= 152.4688\ngini = 0.4444\nsamples = 3\nvalue = [1, 2]"] ;
30 -> 38 ;
39 [label="gini = 0.0\nsamples = 2\nvalue = [0, 2]"] ;
38 -> 39 ;
40 [label="gini = 0.0\nsamples = 1\nvalue = [1, 0]"] ;
38 -> 40 ;
41 [label="fare <= 23.0875\ngini = 0.497\nsamples = 117\nvalue = [63, 54]"] ;
1 -> 41 ;
42 [label="age <= 16.5\ngini = 0.4974\nsamples = 97\nvalue = [45, 52]"] ;
41 -> 42 ;
43 [label="embarked <= 1.5\ngini = 0.3648\nsamples = 25\nvalue = [6, 19]"] ;
42 -> 43 ;
44 [label="fare <= 13.9354\ngini = 0.1327\nsamples = 14\nvalue = [1, 13]"] ;
43 -> 44 ;
45 [label="gini = 0.0\nsamples = 8\nvalue = [0, 8]"] ;
44 -> 45 ;
46 [label="fare <= 15.0979\ngini = 0.2778\nsamples = 6\nvalue = [1, 5]"] ;
44 -> 46 ;
47 [label="age <= 14.75\ngini = 0.5\nsamples = 2\nvalue = [1, 1]"] ;
46 -> 47 ;
48 [label="gini = 0.0\nsamples = 1\nvalue = [1, 0]"] ;
47 -> 48 ;
49 [label="gini = 0.0\nsamples = 1\nvalue = [0, 1]"] ;
47 -> 49 ;
50 [label="gini = 0.0\nsamples = 4\nvalue = [0, 4]"] ;
46 -> 50 ;
51 [label="fare <= 10.7979\ngini = 0.4959\nsamples = 11\nvalue = [5, 6]"] ;
43 -> 51 ;
52 [label="gini = 0.0\nsamples = 2\nvalue = [2, 0]"] ;
51 -> 52 ;
53 [label="fare <= 18.4562\ngini = 0.4444\nsamples = 9\nvalue = [3, 6]"] ;
51 -> 53 ;
54 [label="fare <= 12.2354\ngini = 0.2778\nsamples = 6\nvalue = [1, 5]"] ;
53 -> 54 ;
55 [label="fare <= 11.6583\ngini = 0.5\nsamples = 2\nvalue = [1, 1]"] ;
54 -> 55 ;
56 [label="gini = 0.0\nsamples = 1\nvalue = [0, 1]"] ;
55 -> 56 ;
57 [label="gini = 0.0\nsamples = 1\nvalue = [1, 0]"] ;
55 -> 57 ;
58 [label="gini = 0.0\nsamples = 4\nvalue = [0, 4]"] ;
54 -> 58 ;
59 [label="fare <= 21.55\ngini = 0.4444\nsamples = 3\nvalue = [2, 1]"] ;
53 -> 59 ;
60 [label="gini = 0.0\nsamples = 2\nvalue = [2, 0]"] ;
59 -> 60 ;
61 [label="gini = 0.0\nsamples = 1\nvalue = [0, 1]"] ;
59 -> 61 ;
62 [label="fare <= 7.2562\ngini = 0.4965\nsamples = 72\nvalue = [39, 33]"] ;
42 -> 62 ;
63 [label="gini = 0.0\nsamples = 3\nvalue = [0, 3]"] ;
62 -> 63 ;
64 [label="fare <= 19.125\ngini = 0.4915\nsamples = 69\nvalue = [39, 30]"] ;
62 -> 64 ;
65 [label="age <= 24.5\ngini = 0.4835\nsamples = 66\nvalue = [39, 27]"] ;
64 -> 65 ;
66 [label="age <= 21.5\ngini = 0.4996\nsamples = 35\nvalue = [17, 18]"] ;
65 -> 66 ;
67 [label="fare <= 8.9375\ngini = 0.4444\nsamples = 18\nvalue = [12, 6]"] ;
66 -> 67 ;
68 [label="embarked <= 1.5\ngini = 0.5\nsamples = 10\nvalue = [5, 5]"] ;
67 -> 68 ;
69 [label="gini = 0.32\nsamples = 5\nvalue = [4, 1]"] ;
68 -> 69 ;
70 [label="gini = 0.32\nsamples = 5\nvalue = [1, 4]"] ;
68 -> 70 ;
71 [label="parch <= 0.5\ngini = 0.2188\nsamples = 8\nvalue = [7, 1]"] ;
67 -> 71 ;
72 [label="gini = 0.0\nsamples = 6\nvalue = [6, 0]"] ;
71 -> 72 ;
73 [label="gini = 0.5\nsamples = 2\nvalue = [1, 1]"] ;
71 -> 73 ;
74 [label="fare <= 8.9062\ngini = 0.4152\nsamples = 17\nvalue = [5, 12]"] ;
66 -> 74 ;
75 [label="fare <= 8.3563\ngini = 0.4861\nsamples = 12\nvalue = [5, 7]"] ;
74 -> 75 ;
76 [label="gini = 0.3457\nsamples = 9\nvalue = [2, 7]"] ;
75 -> 76 ;
77 [label="gini = 0.0\nsamples = 3\nvalue = [3, 0]"] ;
75 -> 77 ;
78 [label="gini = 0.0\nsamples = 5\nvalue = [0, 5]"] ;
74 -> 78 ;
79 [label="age <= 55.0\ngini = 0.4121\nsamples = 31\nvalue = [22, 9]"] ;
65 -> 79 ;
80 [label="fare <= 7.8146\ngini = 0.3911\nsamples = 30\nvalue = [22, 8]"] ;
79 -> 80 ;
81 [label="gini = 0.0\nsamples = 5\nvalue = [5, 0]"] ;
80 -> 81 ;
82 [label="sibsp <= 0.5\ngini = 0.4352\nsamples = 25\nvalue = [17, 8]"] ;
80 -> 82 ;
83 [label="gini = 0.497\nsamples = 13\nvalue = [7, 6]"] ;
82 -> 83 ;
84 [label="gini = 0.2778\nsamples = 12\nvalue = [10, 2]"] ;
82 -> 84 ;
85 [label="gini = 0.0\nsamples = 1\nvalue = [0, 1]"] ;
79 -> 85 ;
86 [label="gini = 0.0\nsamples = 3\nvalue = [0, 3]"] ;
64 -> 86 ;
87 [label="fare <= 31.3312\ngini = 0.18\nsamples = 20\nvalue = [18, 2]"] ;
41 -> 87 ;
88 [label="gini = 0.0\nsamples = 10\nvalue = [10, 0]"] ;
87 -> 88 ;
89 [label="fare <= 32.8812\ngini = 0.32\nsamples = 10\nvalue = [8, 2]"] ;
87 -> 89 ;
90 [label="gini = 0.0\nsamples = 2\nvalue = [0, 2]"] ;
89 -> 90 ;
91 [label="gini = 0.0\nsamples = 8\nvalue = [8, 0]"] ;
89 -> 91 ;
92 [label="age <= 9.5\ngini = 0.3136\nsamples = 529\nvalue = [426, 103]"] ;
0 -> 92 [labeldistance=2.5, labelangle=-45, headlabel="False"] ;
93 [label="sibsp <= 2.5\ngini = 0.4592\nsamples = 28\nvalue = [10, 18]"] ;
92 -> 93 ;
94 [label="age <= 0.375\ngini = 0.1884\nsamples = 19\nvalue = [2, 17]"] ;
93 -> 94 ;
95 [label="gini = 0.0\nsamples = 1\nvalue = [1, 0]"] ;
94 -> 95 ;
96 [label="embarked <= 1.0\ngini = 0.1049\nsamples = 18\nvalue = [1, 17]"] ;
94 -> 96 ;
97 [label="sibsp <= 0.5\ngini = 0.32\nsamples = 5\nvalue = [1, 4]"] ;
96 -> 97 ;
98 [label="gini = 0.0\nsamples = 3\nvalue = [0, 3]"] ;
97 -> 98 ;
99 [label="age <= 6.5\ngini = 0.5\nsamples = 2\nvalue = [1, 1]"] ;
97 -> 99 ;
100 [label="gini = 0.0\nsamples = 1\nvalue = [1, 0]"] ;
99 -> 100 ;
101 [label="gini = 0.0\nsamples = 1\nvalue = [0, 1]"] ;
99 -> 101 ;
102 [label="gini = 0.0\nsamples = 13\nvalue = [0, 13]"] ;
96 -> 102 ;
103 [label="age <= 3.5\ngini = 0.1975\nsamples = 9\nvalue = [8, 1]"] ;
93 -> 103 ;
104 [label="age <= 2.5\ngini = 0.4444\nsamples = 3\nvalue = [2, 1]"] ;
103 -> 104 ;
105 [label="gini = 0.0\nsamples = 2\nvalue = [2, 0]"] ;
104 -> 105 ;
106 [label="gini = 0.0\nsamples = 1\nvalue = [0, 1]"] ;
104 -> 106 ;
107 [label="gini = 0.0\nsamples = 6\nvalue = [6, 0]"] ;
103 -> 107 ;
108 [label="pclass <= 1.5\ngini = 0.2818\nsamples = 501\nvalue = [416, 85]"] ;
92 -> 108 ;
109 [label="age <= 36.5\ngini = 0.4389\nsamples = 123\nvalue = [83, 40]"] ;
108 -> 109 ;
110 [label="age <= 33.5\ngini = 0.4962\nsamples = 46\nvalue = [25, 21]"] ;
109 -> 110 ;
111 [label="fare <= 28.1437\ngini = 0.4704\nsamples = 37\nvalue = [23, 14]"] ;
110 -> 111 ;
112 [label="gini = 0.0\nsamples = 5\nvalue = [5, 0]"] ;
111 -> 112 ;
113 [label="fare <= 40.5\ngini = 0.4922\nsamples = 32\nvalue = [18, 14]"] ;
111 -> 113 ;
114 [label="age <= 28.5\ngini = 0.32\nsamples = 5\nvalue = [1, 4]"] ;
113 -> 114 ;
115 [label="gini = 0.0\nsamples = 3\nvalue = [0, 3]"] ;
114 -> 115 ;
116 [label="age <= 30.0\ngini = 0.5\nsamples = 2\nvalue = [1, 1]"] ;
114 -> 116 ;
117 [label="gini = 0.0\nsamples = 1\nvalue = [1, 0]"] ;
116 -> 117 ;
118 [label="gini = 0.0\nsamples = 1\nvalue = [0, 1]"] ;
116 -> 118 ;
119 [label="age <= 15.0\ngini = 0.4664\nsamples = 27\nvalue = [17, 10]"] ;
113 -> 119 ;
120 [label="gini = 0.0\nsamples = 2\nvalue = [0, 2]"] ;
119 -> 120 ;
121 [label="fare <= 123.2583\ngini = 0.4352\nsamples = 25\nvalue = [17, 8]"] ;
119 -> 121 ;
122 [label="embarked <= 1.0\ngini = 0.4875\nsamples = 19\nvalue = [11, 8]"] ;
121 -> 122 ;
123 [label="gini = 0.4444\nsamples = 9\nvalue = [3, 6]"] ;
122 -> 123 ;
124 [label="gini = 0.32\nsamples = 10\nvalue = [8, 2]"] ;
122 -> 124 ;
125 [label="gini = 0.0\nsamples = 6\nvalue = [6, 0]"] ;
121 -> 125 ;
126 [label="age <= 35.5\ngini = 0.3457\nsamples = 9\nvalue = [2, 7]"] ;
110 -> 126 ;
127 [label="gini = 0.0\nsamples = 4\nvalue = [0, 4]"] ;
126 -> 127 ;
128 [label="fare <= 99.425\ngini = 0.48\nsamples = 5\nvalue = [2, 3]"] ;
126 -> 128 ;
129 [label="fare <= 50.8146\ngini = 0.4444\nsamples = 3\nvalue = [2, 1]"] ;
128 -> 129 ;
130 [label="gini = 0.0\nsamples = 1\nvalue = [0, 1]"] ;
129 -> 130 ;
131 [label="gini = 0.0\nsamples = 2\nvalue = [2, 0]"] ;
129 -> 131 ;
132 [label="gini = 0.0\nsamples = 2\nvalue = [0, 2]"] ;
128 -> 132 ;
133 [label="age <= 41.5\ngini = 0.3717\nsamples = 77\nvalue = [58, 19]"] ;
109 -> 133 ;
134 [label="gini = 0.0\nsamples = 11\nvalue = [11, 0]"] ;
133 -> 134 ;
135 [label="age <= 54.5\ngini = 0.41\nsamples = 66\nvalue = [47, 19]"] ;
133 -> 135 ;
136 [label="age <= 47.5\ngini = 0.4717\nsamples = 42\nvalue = [26, 16]"] ;
135 -> 136 ;
137 [label="age <= 45.25\ngini = 0.3403\nsamples = 23\nvalue = [18, 5]"] ;
136 -> 137 ;
138 [label="embarked <= 0.5\ngini = 0.4734\nsamples = 13\nvalue = [8, 5]"] ;
137 -> 138 ;
139 [label="gini = 0.0\nsamples = 3\nvalue = [0, 3]"] ;
138 -> 139 ;
140 [label="fare <= 26.4188\ngini = 0.32\nsamples = 10\nvalue = [8, 2]"] ;
138 -> 140 ;
141 [label="gini = 0.0\nsamples = 1\nvalue = [0, 1]"] ;
140 -> 141 ;
142 [label="gini = 0.1975\nsamples = 9\nvalue = [8, 1]"] ;
140 -> 142 ;
143 [label="gini = 0.0\nsamples = 10\nvalue = [10, 0]"] ;
137 -> 143 ;
144 [label="fare <= 40.4979\ngini = 0.4875\nsamples = 19\nvalue = [8, 11]"] ;
136 -> 144 ;
145 [label="fare <= 26.275\ngini = 0.2778\nsamples = 6\nvalue = [1, 5]"] ;
144 -> 145 ;
146 [label="fare <= 13.0\ngini = 0.5\nsamples = 2\nvalue = [1, 1]"] ;
145 -> 146 ;
147 [label="gini = 0.0\nsamples = 1\nvalue = [0, 1]"] ;
146 -> 147 ;
148 [label="gini = 0.0\nsamples = 1\nvalue = [1, 0]"] ;
146 -> 148 ;
149 [label="gini = 0.0\nsamples = 4\nvalue = [0, 4]"] ;
145 -> 149 ;
150 [label="sibsp <= 0.5\ngini = 0.497\nsamples = 13\nvalue = [7, 6]"] ;
144 -> 150 ;
151 [label="gini = 0.0\nsamples = 3\nvalue = [3, 0]"] ;
150 -> 151 ;
152 [label="fare <= 97.7646\ngini = 0.48\nsamples = 10\nvalue = [4, 6]"] ;
150 -> 152 ;
153 [label="gini = 0.2778\nsamples = 6\nvalue = [1, 5]"] ;
152 -> 153 ;
154 [label="gini = 0.375\nsamples = 4\nvalue = [3, 1]"] ;
152 -> 154 ;
155 [label="age <= 75.5\ngini = 0.2188\nsamples = 24\nvalue = [21, 3]"] ;
135 -> 155 ;
156 [label="embarked <= 1.0\ngini = 0.1588\nsamples = 23\nvalue = [21, 2]"] ;
155 -> 156 ;
157 [label="age <= 60.5\ngini = 0.2975\nsamples = 11\nvalue = [9, 2]"] ;
156 -> 157 ;
158 [label="age <= 59.0\ngini = 0.4444\nsamples = 6\nvalue = [4, 2]"] ;
157 -> 158 ;
159 [label="gini = 0.32\nsamples = 5\nvalue = [4, 1]"] ;
158 -> 159 ;
160 [label="gini = 0.0\nsamples = 1\nvalue = [0, 1]"] ;
158 -> 160 ;
161 [label="gini = 0.0\nsamples = 5\nvalue = [5, 0]"] ;
157 -> 161 ;
162 [label="gini = 0.0\nsamples = 12\nvalue = [12, 0]"] ;
156 -> 162 ;
163 [label="gini = 0.0\nsamples = 1\nvalue = [0, 1]"] ;
155 -> 163 ;
164 [label="age <= 32.25\ngini = 0.2098\nsamples = 378\nvalue = [333, 45]"] ;
108 -> 164 ;
165 [label="age <= 30.75\ngini = 0.2604\nsamples = 260\nvalue = [220, 40]"] ;
164 -> 165 ;
166 [label="embarked <= 0.5\ngini = 0.2344\nsamples = 236\nvalue = [204, 32]"] ;
165 -> 166 ;
167 [label="fare <= 7.5625\ngini = 0.4132\nsamples = 24\nvalue = [17, 7]"] ;
166 -> 167 ;
168 [label="age <= 22.25\ngini = 0.2778\nsamples = 12\nvalue = [10, 2]"] ;
167 -> 168 ;
169 [label="age <= 19.25\ngini = 0.4082\nsamples = 7\nvalue = [5, 2]"] ;
168 -> 169 ;
170 [label="gini = 0.0\nsamples = 2\nvalue = [2, 0]"] ;
169 -> 170 ;
171 [label="age <= 20.5\ngini = 0.48\nsamples = 5\nvalue = [3, 2]"] ;
169 -> 171 ;
172 [label="gini = 0.5\nsamples = 2\nvalue = [1, 1]"] ;
171 -> 172 ;
173 [label="gini = 0.4444\nsamples = 3\nvalue = [2, 1]"] ;
171 -> 173 ;
174 [label="gini = 0.0\nsamples = 5\nvalue = [5, 0]"] ;
168 -> 174 ;
175 [label="fare <= 14.1583\ngini = 0.4861\nsamples = 12\nvalue = [7, 5]"] ;
167 -> 175 ;
176 [label="gini = 0.0\nsamples = 3\nvalue = [0, 3]"] ;
175 -> 176 ;
177 [label="fare <= 15.3938\ngini = 0.3457\nsamples = 9\nvalue = [7, 2]"] ;
175 -> 177 ;
178 [label="gini = 0.0\nsamples = 4\nvalue = [4, 0]"] ;
177 -> 178 ;
179 [label="pclass <= 2.5\ngini = 0.48\nsamples = 5\nvalue = [3, 2]"] ;
177 -> 179 ;
180 [label="gini = 0.0\nsamples = 2\nvalue = [2, 0]"] ;
179 -> 180 ;
181 [label="gini = 0.4444\nsamples = 3\nvalue = [1, 2]"] ;
179 -> 181 ;
182 [label="fare <= 7.7979\ngini = 0.208\nsamples = 212\nvalue = [187, 25]"] ;
166 -> 182 ;
183 [label="fare <= 7.7625\ngini = 0.3585\nsamples = 47\nvalue = [36, 11]"] ;
182 -> 183 ;
184 [label="age <= 23.5\ngini = 0.2311\nsamples = 30\nvalue = [26, 4]"] ;
183 -> 184 ;
185 [label="gini = 0.0\nsamples = 17\nvalue = [17, 0]"] ;
184 -> 185 ;
186 [label="fare <= 7.0104\ngini = 0.426\nsamples = 13\nvalue = [9, 4]"] ;
184 -> 186 ;
187 [label="gini = 0.0\nsamples = 2\nvalue = [0, 2]"] ;
186 -> 187 ;
188 [label="gini = 0.2975\nsamples = 11\nvalue = [9, 2]"] ;
186 -> 188 ;
189 [label="age <= 20.0\ngini = 0.4844\nsamples = 17\nvalue = [10, 7]"] ;
183 -> 189 ;
190 [label="gini = 0.0\nsamples = 2\nvalue = [2, 0]"] ;
189 -> 190 ;
191 [label="age <= 21.5\ngini = 0.4978\nsamples = 15\nvalue = [8, 7]"] ;
189 -> 191 ;
192 [label="gini = 0.375\nsamples = 4\nvalue = [1, 3]"] ;
191 -> 192 ;
193 [label="gini = 0.4628\nsamples = 11\nvalue = [7, 4]"] ;
191 -> 193 ;
194 [label="fare <= 7.9104\ngini = 0.1553\nsamples = 165\nvalue = [151, 14]"] ;
182 -> 194 ;
195 [label="gini = 0.0\nsamples = 30\nvalue = [30, 0]"] ;
194 -> 195 ;
196 [label="fare <= 11.0\ngini = 0.1859\nsamples = 135\nvalue = [121, 14]"] ;
194 -> 196 ;
197 [label="age <= 20.5\ngini = 0.2812\nsamples = 65\nvalue = [54, 11]"] ;
196 -> 197 ;
198 [label="gini = 0.375\nsamples = 24\nvalue = [18, 6]"] ;
197 -> 198 ;
199 [label="gini = 0.2142\nsamples = 41\nvalue = [36, 5]"] ;
197 -> 199 ;
200 [label="age <= 25.5\ngini = 0.082\nsamples = 70\nvalue = [67, 3]"] ;
196 -> 200 ;
201 [label="gini = 0.0\nsamples = 44\nvalue = [44, 0]"] ;
200 -> 201 ;
202 [label="gini = 0.2041\nsamples = 26\nvalue = [23, 3]"] ;
200 -> 202 ;
203 [label="sibsp <= 0.5\ngini = 0.4444\nsamples = 24\nvalue = [16, 8]"] ;
165 -> 203 ;
204 [label="fare <= 7.6562\ngini = 0.48\nsamples = 20\nvalue = [12, 8]"] ;
203 -> 204 ;
205 [label="gini = 0.0\nsamples = 1\nvalue = [0, 1]"] ;
204 -> 205 ;
206 [label="fare <= 39.5104\ngini = 0.4654\nsamples = 19\nvalue = [12, 7]"] ;
204 -> 206 ;
207 [label="fare <= 7.7625\ngini = 0.4444\nsamples = 18\nvalue = [12, 6]"] ;
206 -> 207 ;
208 [label="gini = 0.0\nsamples = 2\nvalue = [2, 0]"] ;
207 -> 208 ;
209 [label="fare <= 8.2063\ngini = 0.4688\nsamples = 16\nvalue = [10, 6]"] ;
207 -> 209 ;
210 [label="gini = 0.5\nsamples = 10\nvalue = [5, 5]"] ;
209 -> 210 ;
211 [label="gini = 0.2778\nsamples = 6\nvalue = [5, 1]"] ;
209 -> 211 ;
212 [label="gini = 0.0\nsamples = 1\nvalue = [0, 1]"] ;
206 -> 212 ;
213 [label="gini = 0.0\nsamples = 4\nvalue = [4, 0]"] ;
203 -> 213 ;
214 [label="age <= 61.5\ngini = 0.0812\nsamples = 118\nvalue = [113, 5]"] ;
164 -> 214 ;
215 [label="age <= 39.5\ngini = 0.0689\nsamples = 112\nvalue = [108, 4]"] ;
214 -> 215 ;
216 [label="age <= 38.75\ngini = 0.1349\nsamples = 55\nvalue = [51, 4]"] ;
215 -> 216 ;
217 [label="fare <= 12.9375\ngini = 0.0815\nsamples = 47\nvalue = [45, 2]"] ;
216 -> 217 ;
218 [label="gini = 0.0\nsamples = 31\nvalue = [31, 0]"] ;
217 -> 218 ;
219 [label="fare <= 18.9625\ngini = 0.2188\nsamples = 16\nvalue = [14, 2]"] ;
217 -> 219 ;
220 [label="fare <= 16.475\ngini = 0.4444\nsamples = 6\nvalue = [4, 2]"] ;
219 -> 220 ;
221 [label="gini = 0.32\nsamples = 5\nvalue = [4, 1]"] ;
220 -> 221 ;
222 [label="gini = 0.0\nsamples = 1\nvalue = [0, 1]"] ;
220 -> 222 ;
223 [label="gini = 0.0\nsamples = 10\nvalue = [10, 0]"] ;
219 -> 223 ;
224 [label="pclass <= 2.5\ngini = 0.375\nsamples = 8\nvalue = [6, 2]"] ;
216 -> 224 ;
225 [label="gini = 0.0\nsamples = 3\nvalue = [3, 0]"] ;
224 -> 225 ;
226 [label="parch <= 1.5\ngini = 0.48\nsamples = 5\nvalue = [3, 2]"] ;
224 -> 226 ;
227 [label="parch <= 0.5\ngini = 0.5\nsamples = 4\nvalue = [2, 2]"] ;
226 -> 227 ;
228 [label="gini = 0.4444\nsamples = 3\nvalue = [2, 1]"] ;
227 -> 228 ;
229 [label="gini = 0.0\nsamples = 1\nvalue = [0, 1]"] ;
227 -> 229 ;
230 [label="gini = 0.0\nsamples = 1\nvalue = [1, 0]"] ;
226 -> 230 ;
231 [label="gini = 0.0\nsamples = 57\nvalue = [57, 0]"] ;
215 -> 231 ;
232 [label="age <= 62.5\ngini = 0.2778\nsamples = 6\nvalue = [5, 1]"] ;
214 -> 232 ;
233 [label="fare <= 10.0938\ngini = 0.5\nsamples = 2\nvalue = [1, 1]"] ;
232 -> 233 ;
234 [label="gini = 0.0\nsamples = 1\nvalue = [1, 0]"] ;
233 -> 234 ;
235 [label="gini = 0.0\nsamples = 1\nvalue = [0, 1]"] ;
233 -> 235 ;
236 [label="gini = 0.0\nsamples = 4\nvalue = [4, 0]"] ;
232 -> 236 ;
}