digraph Tree {
node [shape=box] ;
0 [label="sex <= 0.5\ngini = 0.4886\nsamples = 834\nvalue = [480, 354]"] ;
1 [label="pclass <= 2.5\ngini = 0.3508\nsamples = 313\nvalue = [71, 242]"] ;
0 -> 1 [labeldistance=2.5, labelangle=45, headlabel="True"] ;
2 [label="fare <= 32.0896\ngini = 0.1256\nsamples = 193\nvalue = [13, 180]"] ;
1 -> 2 ;
3 [label="fare <= 31.3396\ngini = 0.2253\nsamples = 85\nvalue = [11, 74]"] ;
2 -> 3 ;
4 [label="parch <= 1.5\ngini = 0.2098\nsamples = 84\nvalue = [10, 74]"] ;
3 -> 4 ;
5 [label="fare <= 12.675\ngini = 0.2392\nsamples = 72\nvalue = [10, 62]"] ;
4 -> 5 ;
6 [label="gini = 0.0\nsamples = 9\nvalue = [0, 9]"] ;
5 -> 6 ;
7 [label="fare <= 13.25\ngini = 0.2671\nsamples = 63\nvalue = [10, 53]"] ;
5 -> 7 ;
8 [label="sibsp <= 0.5\ngini = 0.4444\nsamples = 12\nvalue = [4, 8]"] ;
7 -> 8 ;
9 [label="age <= 31.0\ngini = 0.3967\nsamples = 11\nvalue = [3, 8]"] ;
8 -> 9 ;
10 [label="age <= 29.0\ngini = 0.48\nsamples = 5\nvalue = [2, 3]"] ;
9 -> 10 ;
11 [label="gini = 0.375\nsamples = 4\nvalue = [1, 3]"] ;
10 -> 11 ;
12 [label="gini = 0.0\nsamples = 1\nvalue = [1, 0]"] ;
10 -> 12 ;
13 [label="age <= 37.0\ngini = 0.2778\nsamples = 6\nvalue = [1, 5]"] ;
9 -> 13 ;
14 [label="gini = 0.0\nsamples = 4\nvalue = [0, 4]"] ;
13 -> 14 ;
15 [label="gini = 0.5\nsamples = 2\nvalue = [1, 1]"] ;
13 -> 15 ;
16 [label="gini = 0.0\nsamples = 1\nvalue = [1, 0]"] ;
8 -> 16 ;
17 [label="age <= 21.5\ngini = 0.2076\nsamples = 51\nvalue = [6, 45]"] ;
7 -> 17 ;
18 [label="gini = 0.0\nsamples = 12\nvalue = [0, 12]"] ;
17 -> 18 ;
19 [label="age <= 22.5\ngini = 0.2604\nsamples = 39\nvalue = [6, 33]"] ;
17 -> 19 ;
20 [label="parch <= 0.5\ngini = 0.5\nsamples = 2\nvalue = [1, 1]"] ;
19 -> 20 ;
21 [label="gini = 0.0\nsamples = 1\nvalue = [1, 0]"] ;
20 -> 21 ;
22 [label="gini = 0.0\nsamples = 1\nvalue = [0, 1]"] ;
20 -> 22 ;
23 [label="sibsp <= 0.5\ngini = 0.2337\nsamples = 37\nvalue = [5, 32]"] ;
19 -> 23 ;
24 [label="gini = 0.1049\nsamples = 18\nvalue = [1, 17]"] ;
23 -> 24 ;
25 [label="gini = 0.3324\nsamples = 19\nvalue = [4, 15]"] ;
23 -> 25 ;
26 [label="gini = 0.0\nsamples = 12\nvalue = [0, 12]"] ;
4 -> 26 ;
27 [label="gini = 0.0\nsamples = 1\nvalue = [1, 0]"] ;
3 -> 27 ;
28 [label="age <= 2.5\ngini = 0.0364\nsamples = 108\nvalue = [2, 106]"] ;
2 -> 28 ;
29 [label="embarked <= 1.0\ngini = 0.5\nsamples = 2\nvalue = [1, 1]"] ;
28 -> 29 ;
30 [label="gini = 0.0\nsamples = 1\nvalue = [0, 1]"] ;
29 -> 30 ;
31 [label="gini = 0.0\nsamples = 1\nvalue = [1, 0]"] ;
29 -> 31 ;
32 [label="age <= 61.5\ngini = 0.0187\nsamples = 106\nvalue = [1, 105]"] ;
28 -> 32 ;
33 [label="gini = 0.0\nsamples = 102\nvalue = [0, 102]"] ;
32 -> 33 ;
34 [label="fare <= 152.4688\ngini = 0.375\nsamples = 4\nvalue = [1, 3]"] ;
32 -> 34 ;
35 [label="gini = 0.0\nsamples = 3\nvalue = [0, 3]"] ;
34 -> 35 ;
36 [label="gini = 0.0\nsamples = 1\nvalue = [1, 0]"] ;
34 -> 36 ;
37 [label="embarked <= 0.5\ngini = 0.4994\nsamples = 120\nvalue = [58, 62]"] ;
1 -> 37 ;
38 [label="fare <= 13.9354\ngini = 0.32\nsamples = 20\nvalue = [4, 16]"] ;
37 -> 38 ;
39 [label="gini = 0.0\nsamples = 7\nvalue = [0, 7]"] ;
38 -> 39 ;
40 [label="fare <= 14.852\ngini = 0.426\nsamples = 13\nvalue = [4, 9]"] ;
38 -> 40 ;
41 [label="age <= 16.0\ngini = 0.375\nsamples = 4\nvalue = [3, 1]"] ;
40 -> 41 ;
42 [label="age <= 14.75\ngini = 0.5\nsamples = 2\nvalue = [1, 1]"] ;
41 -> 42 ;
43 [label="gini = 0.0\nsamples = 1\nvalue = [1, 0]"] ;
42 -> 43 ;
44 [label="gini = 0.0\nsamples = 1\nvalue = [0, 1]"] ;
42 -> 44 ;
45 [label="gini = 0.0\nsamples = 2\nvalue = [2, 0]"] ;
41 -> 45 ;
46 [label="fare <= 15.4937\ngini = 0.1975\nsamples = 9\nvalue = [1, 8]"] ;
40 -> 46 ;
47 [label="age <= 19.0\ngini = 0.4444\nsamples = 3\nvalue = [1, 2]"] ;
46 -> 47 ;
48 [label="gini = 0.5\nsamples = 2\nvalue = [1, 1]"] ;
47 -> 48 ;
49 [label="gini = 0.0\nsamples = 1\nvalue = [0, 1]"] ;
47 -> 49 ;
50 [label="gini = 0.0\nsamples = 6\nvalue = [0, 6]"] ;
46 -> 50 ;
51 [label="fare <= 23.0875\ngini = 0.4968\nsamples = 100\nvalue = [54, 46]"] ;
37 -> 51 ;
52 [label="fare <= 10.825\ngini = 0.4999\nsamples = 87\nvalue = [43, 44]"] ;
51 -> 52 ;
53 [label="age <= 19.5\ngini = 0.489\nsamples = 54\nvalue = [31, 23]"] ;
52 -> 53 ;
54 [label="age <= 14.5\ngini = 0.4753\nsamples = 18\nvalue = [7, 11]"] ;
53 -> 54 ;
55 [label="gini = 0.0\nsamples = 2\nvalue = [2, 0]"] ;
54 -> 55 ;
56 [label="fare <= 7.4667\ngini = 0.4297\nsamples = 16\nvalue = [5, 11]"] ;
54 -> 56 ;
57 [label="gini = 0.0\nsamples = 2\nvalue = [2, 0]"] ;
56 -> 57 ;
58 [label="fare <= 7.9021\ngini = 0.3367\nsamples = 14\nvalue = [3, 11]"] ;
56 -> 58 ;
59 [label="age <= 16.5\ngini = 0.4444\nsamples = 9\nvalue = [3, 6]"] ;
58 -> 59 ;
60 [label="gini = 0.0\nsamples = 3\nvalue = [0, 3]"] ;
59 -> 60 ;
61 [label="gini = 0.5\nsamples = 6\nvalue = [3, 3]"] ;
59 -> 61 ;
62 [label="gini = 0.0\nsamples = 5\nvalue = [0, 5]"] ;
58 -> 62 ;
63 [label="age <= 46.0\ngini = 0.4444\nsamples = 36\nvalue = [24, 12]"] ;
53 -> 63 ;
64 [label="age <= 27.5\ngini = 0.4152\nsamples = 34\nvalue = [24, 10]"] ;
63 -> 64 ;
65 [label="fare <= 8.3563\ngini = 0.4835\nsamples = 22\nvalue = [13, 9]"] ;
64 -> 65 ;
66 [label="age <= 21.5\ngini = 0.4734\nsamples = 13\nvalue = [5, 8]"] ;
65 -> 66 ;
67 [label="gini = 0.0\nsamples = 2\nvalue = [2, 0]"] ;
66 -> 67 ;
68 [label="gini = 0.3967\nsamples = 11\nvalue = [3, 8]"] ;
66 -> 68 ;
69 [label="fare <= 8.9062\ngini = 0.1975\nsamples = 9\nvalue = [8, 1]"] ;
65 -> 69 ;
70 [label="gini = 0.0\nsamples = 4\nvalue = [4, 0]"] ;
69 -> 70 ;
71 [label="gini = 0.32\nsamples = 5\nvalue = [4, 1]"] ;
69 -> 71 ;
72 [label="fare <= 8.6729\ngini = 0.1528\nsamples = 12\nvalue = [11, 1]"] ;
64 -> 72 ;
73 [label="gini = 0.0\nsamples = 9\nvalue = [9, 0]"] ;
72 -> 73 ;
74 [label="fare <= 9.1354\ngini = 0.4444\nsamples = 3\nvalue = [2, 1]"] ;
72 -> 74 ;
75 [label="gini = 0.0\nsamples = 1\nvalue = [0, 1]"] ;
74 -> 75 ;
76 [label="gini = 0.0\nsamples = 2\nvalue = [2, 0]"] ;
74 -> 76 ;
77 [label="gini = 0.0\nsamples = 2\nvalue = [0, 2]"] ;
63 -> 77 ;
78 [label="fare <= 17.6\ngini = 0.4628\nsamples = 33\nvalue = [12, 21]"] ;
52 -> 78 ;
79 [label="fare <= 16.4\ngini = 0.3512\nsamples = 22\nvalue = [5, 17]"] ;
78 -> 79 ;
80 [label="sibsp <= 0.5\ngini = 0.4012\nsamples = 18\nvalue = [5, 13]"] ;
79 -> 80 ;
81 [label="fare <= 13.125\ngini = 0.2188\nsamples = 8\nvalue = [1, 7]"] ;
80 -> 81 ;
82 [label="gini = 0.0\nsamples = 5\nvalue = [0, 5]"] ;
81 -> 82 ;
83 [label="fare <= 14.8375\ngini = 0.4444\nsamples = 3\nvalue = [1, 2]"] ;
81 -> 83 ;
84 [label="gini = 0.0\nsamples = 1\nvalue = [1, 0]"] ;
83 -> 84 ;
85 [label="gini = 0.0\nsamples = 2\nvalue = [0, 2]"] ;
83 -> 85 ;
86 [label="age <= 20.5\ngini = 0.48\nsamples = 10\nvalue = [4, 6]"] ;
80 -> 86 ;
87 [label="fare <= 11.6583\ngini = 0.375\nsamples = 4\nvalue = [3, 1]"] ;
86 -> 87 ;
88 [label="gini = 0.0\nsamples = 1\nvalue = [0, 1]"] ;
87 -> 88 ;
89 [label="gini = 0.0\nsamples = 3\nvalue = [3, 0]"] ;
87 -> 89 ;
90 [label="fare <= 14.8292\ngini = 0.2778\nsamples = 6\nvalue = [1, 5]"] ;
86 -> 90 ;
91 [label="gini = 0.0\nsamples = 3\nvalue = [0, 3]"] ;
90 -> 91 ;
92 [label="gini = 0.4444\nsamples = 3\nvalue = [1, 2]"] ;
90 -> 92 ;
93 [label="gini = 0.0\nsamples = 4\nvalue = [0, 4]"] ;
79 -> 93 ;
94 [label="fare <= 20.3687\ngini = 0.4628\nsamples = 11\nvalue = [7, 4]"] ;
78 -> 94 ;
95 [label="gini = 0.0\nsamples = 5\nvalue = [5, 0]"] ;
94 -> 95 ;
96 [label="sibsp <= 2.0\ngini = 0.4444\nsamples = 6\nvalue = [2, 4]"] ;
94 -> 96 ;
97 [label="gini = 0.0\nsamples = 4\nvalue = [0, 4]"] ;
96 -> 97 ;
98 [label="gini = 0.0\nsamples = 2\nvalue = [2, 0]"] ;
96 -> 98 ;
99 [label="age <= 5.5\ngini = 0.2604\nsamples = 13\nvalue = [11, 2]"] ;
51 -> 99 ;
100 [label="age <= 3.5\ngini = 0.5\nsamples = 2\nvalue = [1, 1]"] ;
99 -> 100 ;
101 [label="gini = 0.0\nsamples = 1\nvalue = [1, 0]"] ;
100 -> 101 ;
102 [label="gini = 0.0\nsamples = 1\nvalue = [0, 1]"] ;
100 -> 102 ;
103 [label="parch <= 4.5\ngini = 0.1653\nsamples = 11\nvalue = [10, 1]"] ;
99 -> 103 ;
104 [label="gini = 0.0\nsamples = 9\nvalue = [9, 0]"] ;
103 -> 104 ;
105 [label="fare <= 35.5375\ngini = 0.5\nsamples = 2\nvalue = [1, 1]"] ;
103 -> 105 ;
106 [label="gini = 0.0\nsamples = 1\nvalue = [0, 1]"] ;
105 -> 106 ;
107 [label="gini = 0.0\nsamples = 1\nvalue = [1, 0]"] ;
105 -> 107 ;
108 [label="age <= 9.5\ngini = 0.3375\nsamples = 521\nvalue = [409, 112]"] ;
0 -> 108 [labeldistance=2.5, labelangle=-45, headlabel="False"] ;
109 [label="sibsp <= 2.5\ngini = 0.4861\nsamples = 36\nvalue = [15, 21]"] ;
108 -> 109 ;
110 [label="age <= 0.375\ngini = 0.1653\nsamples = 22\nvalue = [2, 20]"] ;
109 -> 110 ;
111 [label="gini = 0.0\nsamples = 1\nvalue = [1, 0]"] ;
110 -> 111 ;
112 [label="embarked <= 1.0\ngini = 0.0907\nsamples = 21\nvalue = [1, 20]"] ;
110 -> 112 ;
113 [label="sibsp <= 0.5\ngini = 0.375\nsamples = 4\nvalue = [1, 3]"] ;
112 -> 113 ;
114 [label="gini = 0.0\nsamples = 2\nvalue = [0, 2]"] ;
113 -> 114 ;
115 [label="age <= 6.5\ngini = 0.5\nsamples = 2\nvalue = [1, 1]"] ;
113 -> 115 ;
116 [label="gini = 0.0\nsamples = 1\nvalue = [1, 0]"] ;
115 -> 116 ;
117 [label="gini = 0.0\nsamples = 1\nvalue = [0, 1]"] ;
115 -> 117 ;
118 [label="gini = 0.0\nsamples = 17\nvalue = [0, 17]"] ;
112 -> 118 ;
119 [label="parch <= 1.5\ngini = 0.1327\nsamples = 14\nvalue = [13, 1]"] ;
109 -> 119 ;
120 [label="gini = 0.0\nsamples = 9\nvalue = [9, 0]"] ;
119 -> 120 ;
121 [label="age <= 3.5\ngini = 0.32\nsamples = 5\nvalue = [4, 1]"] ;
119 -> 121 ;
122 [label="fare <= 39.1438\ngini = 0.5\nsamples = 2\nvalue = [1, 1]"] ;
121 -> 122 ;
123 [label="gini = 0.0\nsamples = 1\nvalue = [0, 1]"] ;
122 -> 123 ;
124 [label="gini = 0.0\nsamples = 1\nvalue = [1, 0]"] ;
122 -> 124 ;
125 [label="gini = 0.0\nsamples = 3\nvalue = [3, 0]"] ;
121 -> 125 ;
126 [label="embarked <= 0.5\ngini = 0.3048\nsamples = 485\nvalue = [394, 91]"] ;
108 -> 126 ;
127 [label="fare <= 7.5625\ngini = 0.4819\nsamples = 84\nvalue = [50, 34]"] ;
126 -> 127 ;
128 [label="age <= 26.0\ngini = 0.3457\nsamples = 18\nvalue = [14, 4]"] ;
127 -> 128 ;
129 [label="age <= 18.5\ngini = 0.426\nsamples = 13\nvalue = [9, 4]"] ;
128 -> 129 ;
130 [label="gini = 0.0\nsamples = 2\nvalue = [2, 0]"] ;
129 -> 130 ;
131 [label="fare <= 5.6187\ngini = 0.4628\nsamples = 11\nvalue = [7, 4]"] ;
129 -> 131 ;
132 [label="gini = 0.0\nsamples = 1\nvalue = [1, 0]"] ;
131 -> 132 ;
133 [label="age <= 22.25\ngini = 0.48\nsamples = 10\nvalue = [6, 4]"] ;
131 -> 133 ;
134 [label="age <= 21.5\ngini = 0.5\nsamples = 6\nvalue = [3, 3]"] ;
133 -> 134 ;
135 [label="fare <= 7.2271\ngini = 0.4444\nsamples = 3\nvalue = [2, 1]"] ;
134 -> 135 ;
136 [label="gini = 0.0\nsamples = 2\nvalue = [2, 0]"] ;
135 -> 136 ;
137 [label="gini = 0.0\nsamples = 1\nvalue = [0, 1]"] ;
135 -> 137 ;
138 [label="fare <= 7.2271\ngini = 0.4444\nsamples = 3\nvalue = [1, 2]"] ;
134 -> 138 ;
139 [label="gini = 0.0\nsamples = 2\nvalue = [0, 2]"] ;
138 -> 139 ;
140 [label="gini = 0.0\nsamples = 1\nvalue = [1, 0]"] ;
138 -> 140 ;
141 [label="age <= 24.25\ngini = 0.375\nsamples = 4\nvalue = [3, 1]"] ;
133 -> 141 ;
142 [label="gini = 0.0\nsamples = 2\nvalue = [2, 0]"] ;
141 -> 142 ;
143 [label="fare <= 7.2271\ngini = 0.5\nsamples = 2\nvalue = [1, 1]"] ;
141 -> 143 ;
144 [label="gini = 0.0\nsamples = 1\nvalue = [1, 0]"] ;
143 -> 144 ;
145 [label="gini = 0.0\nsamples = 1\nvalue = [0, 1]"] ;
143 -> 145 ;
146 [label="gini = 0.0\nsamples = 5\nvalue = [5, 0]"] ;
128 -> 146 ;
147 [label="age <= 26.5\ngini = 0.4959\nsamples = 66\nvalue = [36, 30]"] ;
127 -> 147 ;
148 [label="fare <= 123.2583\ngini = 0.4444\nsamples = 15\nvalue = [5, 10]"] ;
147 -> 148 ;
149 [label="age <= 11.5\ngini = 0.4082\nsamples = 14\nvalue = [4, 10]"] ;
148 -> 149 ;
150 [label="gini = 0.0\nsamples = 1\nvalue = [1, 0]"] ;
149 -> 150 ;
151 [label="pclass <= 2.5\ngini = 0.355\nsamples = 13\nvalue = [3, 10]"] ;
149 -> 151 ;
152 [label="pclass <= 1.5\ngini = 0.42\nsamples = 10\nvalue = [3, 7]"] ;
151 -> 152 ;
153 [label="fare <= 99.9896\ngini = 0.2449\nsamples = 7\nvalue = [1, 6]"] ;
152 -> 153 ;
154 [label="gini = 0.0\nsamples = 5\nvalue = [0, 5]"] ;
153 -> 154 ;
155 [label="gini = 0.5\nsamples = 2\nvalue = [1, 1]"] ;
153 -> 155 ;
156 [label="fare <= 14.4542\ngini = 0.4444\nsamples = 3\nvalue = [2, 1]"] ;
152 -> 156 ;
157 [label="gini = 0.0\nsamples = 1\nvalue = [0, 1]"] ;
156 -> 157 ;
158 [label="gini = 0.0\nsamples = 2\nvalue = [2, 0]"] ;
156 -> 158 ;
159 [label="gini = 0.0\nsamples = 3\nvalue = [0, 3]"] ;
151 -> 159 ;
160 [label="gini = 0.0\nsamples = 1\nvalue = [1, 0]"] ;
148 -> 160 ;
161 [label="fare <= 361.9146\ngini = 0.4767\nsamples = 51\nvalue = [31, 20]"] ;
147 -> 161 ;
162 [label="fare <= 14.1562\ngini = 0.4648\nsamples = 49\nvalue = [31, 18]"] ;
161 -> 162 ;
163 [label="age <= 31.5\ngini = 0.4444\nsamples = 6\nvalue = [2, 4]"] ;
162 -> 163 ;
164 [label="gini = 0.0\nsamples = 3\nvalue = [0, 3]"] ;
163 -> 164 ;
165 [label="fare <= 13.1459\ngini = 0.4444\nsamples = 3\nvalue = [2, 1]"] ;
163 -> 165 ;
166 [label="gini = 0.0\nsamples = 2\nvalue = [2, 0]"] ;
165 -> 166 ;
167 [label="gini = 0.0\nsamples = 1\nvalue = [0, 1]"] ;
165 -> 167 ;
168 [label="pclass <= 1.5\ngini = 0.4392\nsamples = 43\nvalue = [29, 14]"] ;
162 -> 168 ;
169 [label="fare <= 92.8125\ngini = 0.4753\nsamples = 36\nvalue = [22, 14]"] ;
168 -> 169 ;
170 [label="fare <= 75.9896\ngini = 0.4974\nsamples = 28\nvalue = [15, 13]"] ;
169 -> 170 ;
171 [label="gini = 0.48\nsamples = 25\nvalue = [15, 10]"] ;
170 -> 171 ;
172 [label="gini = 0.0\nsamples = 3\nvalue = [0, 3]"] ;
170 -> 172 ;
173 [label="age <= 47.0\ngini = 0.2188\nsamples = 8\nvalue = [7, 1]"] ;
169 -> 173 ;
174 [label="gini = 0.4444\nsamples = 3\nvalue = [2, 1]"] ;
173 -> 174 ;
175 [label="gini = 0.0\nsamples = 5\nvalue = [5, 0]"] ;
173 -> 175 ;
176 [label="gini = 0.0\nsamples = 7\nvalue = [7, 0]"] ;
168 -> 176 ;
177 [label="gini = 0.0\nsamples = 2\nvalue = [0, 2]"] ;
161 -> 177 ;
178 [label="pclass <= 1.5\ngini = 0.2439\nsamples = 401\nvalue = [344, 57]"] ;
126 -> 178 ;
179 [label="age <= 53.5\ngini = 0.3785\nsamples = 71\nvalue = [53, 18]"] ;
178 -> 179 ;
180 [label="age <= 50.5\ngini = 0.4271\nsamples = 55\nvalue = [38, 17]"] ;
179 -> 180 ;
181 [label="age <= 14.0\ngini = 0.3983\nsamples = 51\nvalue = [37, 14]"] ;
180 -> 181 ;
182 [label="gini = 0.0\nsamples = 1\nvalue = [0, 1]"] ;
181 -> 182 ;
183 [label="fare <= 26.1437\ngini = 0.3848\nsamples = 50\nvalue = [37, 13]"] ;
181 -> 183 ;
184 [label="gini = 0.0\nsamples = 6\nvalue = [6, 0]"] ;
183 -> 184 ;
185 [label="fare <= 26.4688\ngini = 0.4163\nsamples = 44\nvalue = [31, 13]"] ;
183 -> 185 ;
186 [label="gini = 0.0\nsamples = 3\nvalue = [0, 3]"] ;
185 -> 186 ;
187 [label="age <= 47.5\ngini = 0.3688\nsamples = 41\nvalue = [31, 10]"] ;
185 -> 187 ;
188 [label="gini = 0.3324\nsamples = 38\nvalue = [30, 8]"] ;
187 -> 188 ;
189 [label="gini = 0.4444\nsamples = 3\nvalue = [1, 2]"] ;
187 -> 189 ;
190 [label="fare <= 55.075\ngini = 0.375\nsamples = 4\nvalue = [1, 3]"] ;
180 -> 190 ;
191 [label="gini = 0.0\nsamples = 2\nvalue = [0, 2]"] ;
190 -> 191 ;
192 [label="fare <= 80.7542\ngini = 0.5\nsamples = 2\nvalue = [1, 1]"] ;
190 -> 192 ;
193 [label="gini = 0.0\nsamples = 1\nvalue = [1, 0]"] ;
192 -> 193 ;
194 [label="gini = 0.0\nsamples = 1\nvalue = [0, 1]"] ;
192 -> 194 ;
195 [label="age <= 75.0\ngini = 0.1172\nsamples = 16\nvalue = [15, 1]"] ;
179 -> 195 ;
196 [label="gini = 0.0\nsamples = 15\nvalue = [15, 0]"] ;
195 -> 196 ;
197 [label="gini = 0.0\nsamples = 1\nvalue = [0, 1]"] ;
195 -> 197 ;
198 [label="fare <= 7.825\ngini = 0.2084\nsamples = 330\nvalue = [291, 39]"] ;
178 -> 198 ;
199 [label="fare <= 7.5354\ngini = 0.3333\nsamples = 71\nvalue = [56, 15]"] ;
198 -> 199 ;
200 [label="fare <= 7.0104\ngini = 0.1567\nsamples = 35\nvalue = [32, 3]"] ;
199 -> 200 ;
201 [label="age <= 23.0\ngini = 0.3457\nsamples = 9\nvalue = [7, 2]"] ;
200 -> 201 ;
202 [label="gini = 0.0\nsamples = 4\nvalue = [4, 0]"] ;
201 -> 202 ;
203 [label="age <= 30.5\ngini = 0.48\nsamples = 5\nvalue = [3, 2]"] ;
201 -> 203 ;
204 [label="gini = 0.0\nsamples = 2\nvalue = [0, 2]"] ;
203 -> 204 ;
205 [label="gini = 0.0\nsamples = 3\nvalue = [3, 0]"] ;
203 -> 205 ;
206 [label="age <= 24.5\ngini = 0.074\nsamples = 26\nvalue = [25, 1]"] ;
200 -> 206 ;
207 [label="age <= 23.5\ngini = 0.1528\nsamples = 12\nvalue = [11, 1]"] ;
206 -> 207 ;
208 [label="gini = 0.0\nsamples = 10\nvalue = [10, 0]"] ;
207 -> 208 ;
209 [label="fare <= 7.1958\ngini = 0.5\nsamples = 2\nvalue = [1, 1]"] ;
207 -> 209 ;
210 [label="gini = 0.0\nsamples = 1\nvalue = [0, 1]"] ;
209 -> 210 ;
211 [label="gini = 0.0\nsamples = 1\nvalue = [1, 0]"] ;
209 -> 211 ;
212 [label="gini = 0.0\nsamples = 14\nvalue = [14, 0]"] ;
206 -> 212 ;
213 [label="fare <= 7.6146\ngini = 0.4444\nsamples = 36\nvalue = [24, 12]"] ;
199 -> 213 ;
214 [label="gini = 0.0\nsamples = 2\nvalue = [0, 2]"] ;
213 -> 214 ;
215 [label="age <= 30.0\ngini = 0.4152\nsamples = 34\nvalue = [24, 10]"] ;
213 -> 215 ;
216 [label="age <= 19.5\ngini = 0.4734\nsamples = 26\nvalue = [16, 10]"] ;
215 -> 216 ;
217 [label="gini = 0.0\nsamples = 4\nvalue = [4, 0]"] ;
216 -> 217 ;
218 [label="fare <= 7.8104\ngini = 0.4959\nsamples = 22\nvalue = [12, 10]"] ;
216 -> 218 ;
219 [label="gini = 0.4898\nsamples = 21\nvalue = [12, 9]"] ;
218 -> 219 ;
220 [label="gini = 0.0\nsamples = 1\nvalue = [0, 1]"] ;
218 -> 220 ;
221 [label="gini = 0.0\nsamples = 8\nvalue = [8, 0]"] ;
215 -> 221 ;
222 [label="age <= 28.75\ngini = 0.1682\nsamples = 259\nvalue = [235, 24]"] ;
198 -> 222 ;
223 [label="fare <= 9.275\ngini = 0.1164\nsamples = 145\nvalue = [136, 9]"] ;
222 -> 223 ;
224 [label="age <= 15.0\ngini = 0.1748\nsamples = 62\nvalue = [56, 6]"] ;
223 -> 224 ;
225 [label="gini = 0.0\nsamples = 1\nvalue = [0, 1]"] ;
224 -> 225 ;
226 [label="age <= 20.5\ngini = 0.1505\nsamples = 61\nvalue = [56, 5]"] ;
224 -> 226 ;
227 [label="sibsp <= 0.5\ngini = 0.2975\nsamples = 22\nvalue = [18, 4]"] ;
226 -> 227 ;
228 [label="gini = 0.2449\nsamples = 21\nvalue = [18, 3]"] ;
227 -> 228 ;
229 [label="gini = 0.0\nsamples = 1\nvalue = [0, 1]"] ;
227 -> 229 ;
230 [label="fare <= 8.5479\ngini = 0.05\nsamples = 39\nvalue = [38, 1]"] ;
226 -> 230 ;
231 [label="gini = 0.0\nsamples = 32\nvalue = [32, 0]"] ;
230 -> 231 ;
232 [label="gini = 0.2449\nsamples = 7\nvalue = [6, 1]"] ;
230 -> 232 ;
233 [label="fare <= 28.45\ngini = 0.0697\nsamples = 83\nvalue = [80, 3]"] ;
223 -> 233 ;
234 [label="fare <= 11.0\ngini = 0.0322\nsamples = 61\nvalue = [60, 1]"] ;
233 -> 234 ;
235 [label="age <= 22.5\ngini = 0.0868\nsamples = 22\nvalue = [21, 1]"] ;
234 -> 235 ;
236 [label="gini = 0.18\nsamples = 10\nvalue = [9, 1]"] ;
235 -> 236 ;
237 [label="gini = 0.0\nsamples = 12\nvalue = [12, 0]"] ;
235 -> 237 ;
238 [label="gini = 0.0\nsamples = 39\nvalue = [39, 0]"] ;
234 -> 238 ;
239 [label="age <= 25.5\ngini = 0.1653\nsamples = 22\nvalue = [20, 2]"] ;
233 -> 239 ;
240 [label="gini = 0.0\nsamples = 19\nvalue = [19, 0]"] ;
239 -> 240 ;
241 [label="age <= 27.0\ngini = 0.4444\nsamples = 3\nvalue = [1, 2]"] ;
239 -> 241 ;
242 [label="gini = 0.0\nsamples = 2\nvalue = [0, 2]"] ;
241 -> 242 ;
243 [label="gini = 0.0\nsamples = 1\nvalue = [1, 0]"] ;
241 -> 243 ;
244 [label="fare <= 51.6979\ngini = 0.2285\nsamples = 114\nvalue = [99, 15]"] ;
222 -> 244 ;
245 [label="sibsp <= 2.5\ngini = 0.2068\nsamples = 111\nvalue = [98, 13]"] ;
244 -> 245 ;
246 [label="age <= 32.25\ngini = 0.1944\nsamples = 110\nvalue = [98, 12]"] ;
245 -> 246 ;
247 [label="age <= 30.75\ngini = 0.3047\nsamples = 32\nvalue = [26, 6]"] ;
246 -> 247 ;
248 [label="gini = 0.1172\nsamples = 16\nvalue = [15, 1]"] ;
247 -> 248 ;
249 [label="gini = 0.4297\nsamples = 16\nvalue = [11, 5]"] ;
247 -> 249 ;
250 [label="age <= 61.5\ngini = 0.142\nsamples = 78\nvalue = [72, 6]"] ;
246 -> 250 ;
251 [label="gini = 0.1244\nsamples = 75\nvalue = [70, 5]"] ;
250 -> 251 ;
252 [label="gini = 0.4444\nsamples = 3\nvalue = [2, 1]"] ;
250 -> 252 ;
253 [label="gini = 0.0\nsamples = 1\nvalue = [0, 1]"] ;
245 -> 253 ;
254 [label="age <= 40.5\ngini = 0.4444\nsamples = 3\nvalue = [1, 2]"] ;
244 -> 254 ;
255 [label="gini = 0.0\nsamples = 2\nvalue = [0, 2]"] ;
254 -> 255 ;
256 [label="gini = 0.0\nsamples = 1\nvalue = [1, 0]"] ;
254 -> 256 ;
}